{"learner":{"attributes":{"best_iteration":"18","best_score":"10946.23155002513"},"feature_names":["year","temperature2mmaxmean","temperature2mmaxmax","temperature2mminmean","temperature2mminmin","temperaturesum","precipitationsum","precipitationsummean","precipitationsummax","rainsumsum","snowfallsumsum","precipitationhourssum","precipitationhoursmean","windspeed10mmaxmean","windspeed10mmaxmax","shortwaveradiationsumsum","shortwaveradiationsummean","et0faoevapotranspirationsum","et0faoevapotranspirationmean"],"feature_types":["int","float","float","float","float","float","float","float","float","float","float","int","float","float","float","float","float","float","float"],"gradient_booster":{"model":{"gbtree_model_param":{"num_parallel_tree":"1","num_trees":"29"},"iteration_indptr":[0,1,2,3,4,5,6,7,8,9,10,11,12,13,14,15,16,17,18,19,20,21,22,23,24,25,26,27,28,29],"tree_info":[0,0,0,0,0,0,0,0,0,0,0,0,0,0,0,0,0,0,0,0,0,0,0,0,0,0,0,0,0],"trees":[{"base_weights":[2.2630647E2,-1.6773073E3,2.0794045E3,-2.814673E3,-6.2284235E2,-2.935793E2,2.6311477E3,-2.2346897E3,-3.6819894E2,-1.275338E3,-2.752397E-1,2.9711235E3,-3.159257E1,-1.7750725E2,-2.4683061E2,-5.6490864E1,-1.597581E2,-4.332826E1,2.0757195E2,4.575086E2,2.521459E3,3.4741177E1,6.2269683E0,1.4814897E3,3.2866553E3,1.26855995E2,1.7845238E2,2.9695554E2,3.5934833E2],"categories":[],"categories_nodes":[],"categories_segments":[],"categories_sizes":[],"default_left":[0,0,0,0,0,0,0,0,0,0,0,0,0,0,0,0,0,0,0,0,0,0,0,0,0,0,0,0,0],"id":0,"left_children":[1,3,5,7,9,-1,11,13,-1,15,17,19,-1,-1,-1,-1,-1,-1,21,-1,23,-1,-1,25,27,-1,-1,-1,-1],"loss_changes":[2.9172713E9,4.8756646E8,1.1671397E9,9.036557E7,8.652501E7,0E0,3.796695E8,8.503552E6,0E0,2.2906336E7,9.989866E6,2.3296614E8,0E0,0E0,0E0,0E0,0E0,0E0,1.502295E6,0E0,2.0760422E8,0E0,0E0,5.156576E6,4.21504E6,0E0,0E0,0E0,0E0],"parents":[2147483647,0,0,1,1,2,2,3,3,4,4,6,6,7,7,9,9,10,10,11,11,18,18,20,20,23,23,24,24],"right_children":[2,4,6,8,10,-1,12,14,-1,16,18,20,-1,-1,-1,-1,-1,-1,22,-1,24,-1,-1,26,28,-1,-1,-1,-1],"split_conditions":[1.3525753E1,2.009E3,2.004E3,1.3159452E1,2.012E3,-2.935793E2,2.0317808E1,2.005E3,-3.6819894E2,2.01E3,2.013E3,1.818441E1,-3.159257E1,-1.7750725E2,-2.4683061E2,-5.6490864E1,-1.597581E2,-4.332826E1,2.014E3,4.575086E2,2.018E3,3.4741177E1,6.2269683E0,2.017E3,1.8310137E1,1.26855995E2,1.7845238E2,2.9695554E2,3.5934833E2],"split_indices":[3,0,0,3,0,0,13,0,0,0,0,16,0,0,0,0,0,0,0,0,0,0,0,0,16,0,0,0,0],"split_type":[0,0,0,0,0,0,0,0,0,0,0,0,0,0,0,0,0,0,0,0,0,0,0,0,0,0,0,0,0],"sum_hessian":[8.25E2,4.07E2,4.18E2,1.95E2,2.12E2,4.1E1,3.77E2,1.19E2,7.6E1,1.03E2,1.09E2,3.38E2,3.9E1,4.3E1,7.6E1,3.3E1,7E1,3.5E1,7.4E1,7.2E1,2.66E2,3.7E1,3.7E1,1.14E2,1.52E2,7E1,4.4E1,8E1,7.2E1],"tree_param":{"num_deleted":"0","num_feature":"19","num_nodes":"29","size_leaf_vector":"1"}},{"base_weights":[1.8120947E2,-1.7792483E3,1.7605488E3,-2.2367588E3,2.835911E2,4.2610712E2,2.225516E3,-4.2027213E2,-1.965593E3,3.2258856E2,6.0328102E1,2.7222703E3,1.953258E3,-1.7777904E3,-3.246478E2,2.5205235E1,3.8304466E1,3.0751862E2,2.5081665E2,2.6872882E2,1.7783169E3,-1.0343268E2,-1.8986755E3,1.961423E2,1.4505788E2,-1.9562138E2,-1.501304E2],"categories":[],"categories_nodes":[],"categories_segments":[],"categories_sizes":[],"default_left":[0,0,0,0,0,0,0,0,0,0,0,0,0,0,0,0,0,0,0,0,0,0,0,0,0,0,0],"id":1,"left_children":[1,3,5,7,-1,9,11,-1,13,15,-1,17,19,21,-1,-1,-1,-1,-1,-1,23,-1,25,-1,-1,-1,-1],"loss_changes":[2.5048847E9,7.685892E8,2.770231E8,1.6712973E8,0E0,1.95126E6,3.958413E7,0E0,6.4229504E7,2.275425E5,0E0,9.76384E5,2.321504E7,2.104384E7,0E0,0E0,0E0,0E0,0E0,0E0,7.896704E6,0E0,2.070336E6,0E0,0E0,0E0,0E0],"parents":[2147483647,0,0,1,1,2,2,3,3,5,5,6,6,8,8,9,9,11,11,12,12,13,13,20,20,22,22],"right_children":[2,4,6,8,-1,10,12,-1,14,16,-1,18,20,22,-1,-1,-1,-1,-1,-1,24,-1,26,-1,-1,-1,-1],"split_conditions":[2.012E3,2.2911781E1,1.3525753E1,2.003E3,2.835911E2,2.014E3,1.3476713E0,-4.2027213E2,4.07E1,2.013E3,6.0328102E1,3.95E1,2.2473425E1,3.64E1,-3.246478E2,2.5205235E1,3.8304466E1,3.0751862E2,2.5081665E2,2.6872882E2,4.54E1,-1.0343268E2,2.01E3,1.961423E2,1.4505788E2,-1.9562138E2,-1.501304E2],"split_indices":[0,1,3,0,0,0,7,0,2,0,0,2,1,2,0,0,0,0,0,0,14,0,0,0,0,0,0],"split_type":[0,0,0,0,0,0,0,0,0,0,0,0,0,0,0,0,0,0,0,0,0,0,0,0,0,0,0],"sum_hessian":[8.07E2,3.6E2,4.47E2,3.28E2,3.2E1,1.16E2,3.31E2,3.8E1,2.9E2,7.5E1,4.1E1,1.14E2,2.17E2,2.55E2,3.5E1,3.7E1,3.8E1,3.8E1,7.6E1,3.9E1,1.78E2,3.7E1,2.18E2,1.11E2,6.7E1,1.87E2,3.1E1],"tree_param":{"num_deleted":"0","num_feature":"19","num_nodes":"27","size_leaf_vector":"1"}},{"base_weights":[-2.5809685E1,-1.7243286E3,1.6396304E3,-9.8679266E2,-2.3299866E3,7.748631E2,2.3977058E3,-1.3179509E3,-4.333807E2,-1.5159637E3,-2.7843142E3,2.5458038E2,1.1409519E3,3.3100793E2,1.9884615E3,-1.5375829E2,-1.1684771E2,-6.2159027E1,-2.4871841E1,-1.2418111E2,-1.765925E2,-2.5401016E2,-3.4443777E2,3.710144E1,1.4823781E1,1.6740544E2,8.80277E1,2.2102612E2,1.1471548E2],"categories":[],"categories_nodes":[],"categories_segments":[],"categories_sizes":[],"default_left":[0,0,0,0,0,0,0,0,0,0,0,0,0,0,0,0,0,0,0,0,0,0,0,0,0,0,0,0,0],"id":2,"left_children":[1,3,5,7,9,11,13,15,17,19,21,23,25,-1,27,-1,-1,-1,-1,-1,-1,-1,-1,-1,-1,-1,-1,-1,-1],"loss_changes":[2.2969692E9,1.7727194E8,2.6692122E8,3.2966688E7,7.714227E7,3.64702E7,7.481574E7,1.945888E6,2.278262E6,3.357792E6,1.3818368E7,9.47935E5,1.4229568E7,0E0,2.6014592E7,0E0,0E0,0E0,0E0,0E0,0E0,0E0,0E0,0E0,0E0,0E0,0E0,0E0,0E0],"parents":[2147483647,0,0,1,1,2,2,3,3,4,4,5,5,6,6,7,7,8,8,9,9,10,10,11,11,12,12,14,14],"right_children":[2,4,6,8,10,12,14,16,18,20,22,24,26,-1,28,-1,-1,-1,-1,-1,-1,-1,-1,-1,-1,-1,-1,-1,-1],"split_conditions":[2.013E3,2.1E0,2.018E3,2.011E3,1.3159452E1,1.3525753E1,1.2627398E0,2.006E3,2.012E3,2.005E3,2.2911781E1,2.014E3,3.69E1,3.3100793E2,1.4293151E1,-1.5375829E2,-1.1684771E2,-6.2159027E1,-2.4871841E1,-1.2418111E2,-1.765925E2,-2.5401016E2,-3.4443777E2,3.710144E1,1.4823781E1,1.6740544E2,8.80277E1,2.2102612E2,1.1471548E2],"split_indices":[0,4,0,0,3,3,7,0,0,0,1,0,2,0,3,0,0,0,0,0,0,0,0,0,0,0,0,0,0],"split_type":[0,0,0,0,0,0,0,0,0,0,0,0,0,0,0,0,0,0,0,0,0,0,0,0,0,0,0,0,0],"sum_hessian":[8.1E2,4.01E2,4.09E2,1.82E2,2.19E2,1.92E2,2.17E2,1.13E2,6.9E1,8E1,1.39E2,8E1,1.12E2,6.5E1,1.52E2,4.2E1,7.1E1,3.3E1,3.6E1,4.1E1,3.9E1,1.05E2,3.4E1,3.7E1,4.3E1,3.5E1,7.7E1,1.19E2,3.3E1],"tree_param":{"num_deleted":"0","num_feature":"19","num_nodes":"29","size_leaf_vector":"1"}},{"base_weights":[-4.8687195E1,-1.2189653E3,1.6824941E3,4.574299E1,-1.4509375E3,2.4211003E3,7.392695E2,-4.3657543E1,6.205749E1,-1.0789706E3,-1.8828417E3,1.8476157E2,2.7771555E2,1.4495348E2,4.9168597E2,-8.410968E1,-1.1221185E2,-2.217228E3,-1.36141E2,4.1319096E1,6.5256966E1,-2.3631306E2,-1.8418378E2],"categories":[],"categories_nodes":[],"categories_segments":[],"categories_sizes":[],"default_left":[0,0,0,0,0,0,0,0,0,0,0,0,0,0,0,0,0,0,0,0,0,0,0],"id":3,"left_children":[1,3,5,7,9,11,13,-1,-1,15,17,-1,-1,-1,19,-1,-1,21,-1,-1,-1,-1,-1],"loss_changes":[1.6876526E9,1.4587475E8,2.322919E8,2.1896586E7,6.5443136E7,3.325696E7,2.548892E7,0E0,0E0,1.39632E6,3.0632832E7,0E0,0E0,0E0,1.144764E6,0E0,0E0,2.000896E6,0E0,0E0,0E0,0E0,0E0],"parents":[2147483647,0,0,1,1,2,2,3,3,4,4,5,5,6,6,9,9,10,10,14,14,17,17],"right_children":[2,4,6,8,10,12,14,-1,-1,16,18,-1,-1,-1,20,-1,-1,22,-1,-1,-1,-1,-1],"split_conditions":[1.8118853E1,1.28413E3,5.251E2,2.014E3,2.4E0,1.2627398E0,2.015E3,-4.3657543E1,6.205749E1,-7E-1,1.320137E1,1.8476157E2,2.7771555E2,1.4495348E2,2.018E3,-8.410968E1,-1.1221185E2,2.005E3,-1.36141E2,4.1319096E1,6.5256966E1,-2.3631306E2,-1.8418378E2],"split_indices":[5,17,6,0,4,7,0,0,0,4,3,0,0,0,0,0,0,0,0,0,0,0,0],"split_type":[0,0,0,0,0,0,0,0,0,0,0,0,0,0,0,0,0,0,0,0,0,0,0],"sum_hessian":[8.31E2,4.96E2,3.35E2,7.7E1,4.19E2,1.87E2,1.48E2,4.2E1,3.5E1,2.27E2,1.92E2,7.4E1,1.13E2,3.7E1,1.11E2,3.8E1,1.89E2,1.15E2,7.7E1,7.7E1,3.4E1,7.9E1,3.6E1],"tree_param":{"num_deleted":"0","num_feature":"19","num_nodes":"23","size_leaf_vector":"1"}},{"base_weights":[1.4967032E2,-1.3873275E3,1.3782618E3,-4.2280423E2,-1.6042202E3,-1.7472679E2,1.6597771E3,-1.8087307E1,-6.206149E1,-1.7896129E3,-1.0440098E3,2.6223784E3,1.4340634E3,-1.4797958E2,-2.1000716E2,-9.025881E1,-1.16868164E2,2.9438895E2,2.3070317E2,4.6376288E2,1.7259789E3,5.4131886E1,4.007814E1,1.9680107E3,1.3758443E2,2.1441576E2,1.778101E2],"categories":[],"categories_nodes":[],"categories_segments":[],"categories_sizes":[],"default_left":[0,0,0,0,0,0,0,0,0,0,0,0,0,0,0,0,0,0,0,0,0,0,0,0,0,0,0],"id":4,"left_children":[1,3,5,7,9,-1,11,-1,-1,13,15,17,19,-1,-1,-1,-1,-1,-1,21,23,-1,-1,25,-1,-1,-1],"loss_changes":[1.5427996E9,7.526067E7,4.023675E8,3.141993E6,2.8873856E7,0E0,8.684198E7,0E0,0E0,1.8149248E7,2.85144E5,1.116544E6,9.550317E7,0E0,0E0,0E0,0E0,0E0,0E0,1.73816E5,1.9410432E7,0E0,0E0,1.272192E6,0E0,0E0,0E0],"parents":[2147483647,0,0,1,1,2,2,3,3,4,4,6,6,9,9,10,10,11,11,12,12,19,19,20,20,23,23],"right_children":[2,4,6,8,10,-1,12,-1,-1,14,16,18,20,-1,-1,-1,-1,-1,-1,22,24,-1,-1,26,-1,-1,-1],"split_conditions":[1.3450959E1,9E-1,2.004E3,2.006E3,5.31E1,-1.7472679E2,1.818441E1,-1.8087307E1,-6.206149E1,4.53E1,2.01E3,2.007E3,2.016E3,-1.4797958E2,-2.1000716E2,-9.025881E1,-1.16868164E2,2.9438895E2,2.3070317E2,2.015E3,4.919E2,5.4131886E1,4.007814E1,8.32E2,1.3758443E2,2.1441576E2,1.778101E2],"split_indices":[3,4,0,0,14,0,16,0,0,14,0,0,0,0,0,0,0,0,0,0,6,0,0,11,0,0,0],"split_type":[0,0,0,0,0,0,0,0,0,0,0,0,0,0,0,0,0,0,0,0,0,0,0,0,0,0,0],"sum_hessian":[8.15E2,3.62E2,4.53E2,6.7E1,2.95E2,3.7E1,4.16E2,3.1E1,3.6E1,2.2E2,7.5E1,7.7E1,3.39E2,1.13E2,1.07E2,3.9E1,3.6E1,3.4E1,4.3E1,7.9E1,2.6E2,3.2E1,4.7E1,1.51E2,1.09E2,7.3E1,7.8E1],"tree_param":{"num_deleted":"0","num_feature":"19","num_nodes":"27","size_leaf_vector":"1"}},{"base_weights":[1.2590746E2,-7.319057E2,1.6775831E3,-1.3860638E3,-6.529943E1,2.5705144E3,6.855005E2,1.6173038E1,-1.6447207E3,3.4385767E2,-1.0025706E3,1.8875842E2,2.772731E2,1.2409977E3,1.20482445E2,-1.3209872E3,-2.2631726E2,-2.4004579E0,8.8936566E2,-1.2099474E2,-7.762606E1,1.4224092E2,1.0603082E2,-3.2632378E1,5.069165E1,-1.12368385E2,-1.3728911E2,-4.0936474E1,2.0904074E1,1.0240999E2,6.847344E1],"categories":[],"categories_nodes":[],"categories_segments":[],"categories_sizes":[],"default_left":[0,0,0,0,0,0,0,0,0,0,0,0,0,0,0,0,0,0,0,0,0,0,0,0,0,0,0,0,0,0,0],"id":5,"left_children":[1,3,5,7,9,11,13,-1,15,17,19,-1,-1,21,23,25,-1,27,29,-1,-1,-1,-1,-1,-1,-1,-1,-1,-1,-1,-1],"loss_changes":[1.117977E9,2.3582112E8,2.6311053E8,1.0956093E8,1.0350386E8,1.6448E7,4.4733304E7,0E0,4.386029E7,3.551281E7,2.909144E6,0E0,0E0,8.51904E5,1.2597021E7,5.488E4,0E0,1.006726E7,1.311436E6,0E0,0E0,0E0,0E0,0E0,0E0,0E0,0E0,0E0,0E0,0E0,0E0],"parents":[2147483647,0,0,1,1,2,2,3,3,4,4,5,5,6,6,8,8,9,9,10,10,13,13,14,14,15,15,17,17,18,18],"right_children":[2,4,6,8,10,12,14,-1,16,18,20,-1,-1,22,24,26,-1,28,30,-1,-1,-1,-1,-1,-1,-1,-1,-1,-1,-1,-1],"split_conditions":[1.8125479E1,1.7643013E1,2.9E0,3.63E1,4.05E1,3.7E1,4.08E1,1.6173038E1,2.7E0,1.063E3,4.06E1,1.8875842E2,2.772731E2,3.98E1,4.16E1,3.64E1,-2.2631726E2,4.918E2,3.81E1,-1.2099474E2,-7.762606E1,1.4224092E2,1.0603082E2,-3.2632378E1,5.069165E1,-1.12368385E2,-1.3728911E2,-4.0936474E1,2.0904074E1,1.0240999E2,6.847344E1],"split_indices":[5,5,4,2,2,2,2,0,4,11,2,0,0,2,2,2,0,6,2,0,0,0,0,0,0,0,0,0,0,0,0],"split_type":[0,0,0,0,0,0,0,0,0,0,0,0,0,0,0,0,0,0,0,0,0,0,0,0,0,0,0,0,0,0,0],"sum_hessian":[8.38E2,5.4E2,2.98E2,2.72E2,2.68E2,1.56E2,1.42E2,3.9E1,2.33E2,1.87E2,8.1E1,3.8E1,1.18E2,7.1E1,7.1E1,1.55E2,7.8E1,1.15E2,7.2E1,4E1,4.1E1,3.2E1,3.9E1,3.3E1,3.8E1,3.7E1,1.18E2,3.9E1,7.6E1,4.1E1,3.1E1],"tree_param":{"num_deleted":"0","num_feature":"19","num_nodes":"31","size_leaf_vector":"1"}},{"base_weights":[-2.1301868E2,-7.9042096E2,1.3600586E3,-6.384307E2,-3.463547E2,3.231171E2,4.836485E2,-1.1962506E3,4.9544058E2,1.6425494E2,1.4993709E2,-1.9970374E3,-9.9016266E2,8.0080493E2,-8.6231804E1,5.382248E1,-2.4835812E1,-1.6510794E2,-2.3264224E2,-2.8581022E1,-1.0954015E3,9.5051434E2,2.0033411E1,6.466854E0,-1.15998335E1,-8.9589294E1,-1.2568225E2,1.0899908E2,6.845333E1],"categories":[],"categories_nodes":[],"categories_segments":[],"categories_sizes":[],"default_left":[0,0,0,0,0,0,0,0,0,0,0,0,0,0,0,0,0,0,0,0,0,0,0,0,0,0,0,0,0],"id":6,"left_children":[1,3,5,7,-1,-1,9,11,13,15,-1,17,19,21,-1,-1,23,-1,-1,-1,25,27,-1,-1,-1,-1,-1,-1,-1],"loss_changes":[7.4406317E8,2.411559E8,3.592068E8,3.5985043E8,0E0,0E0,4.874041E7,6.089997E7,7.863742E7,8.2162195E6,0E0,4.933312E6,2.2295104E7,1.3653584E7,0E0,0E0,6.43938E5,0E0,0E0,0E0,7.40832E6,3.816936E6,0E0,0E0,0E0,0E0,0E0,0E0,0E0],"parents":[2147483647,0,0,1,1,2,2,3,3,6,6,7,7,8,8,9,9,11,11,12,12,13,13,16,16,20,20,21,21],"right_children":[2,4,6,8,-1,-1,10,12,14,16,-1,18,20,22,-1,-1,24,-1,-1,-1,26,28,-1,-1,-1,-1,-1,-1,-1],"split_conditions":[3.8446848E0,2.3025206E1,2.8E1,1.3450959E1,-3.463547E2,3.231171E2,3.1E0,4.971E2,3.98E1,2.3453972E1,1.4993709E2,2.1903835E1,2.1719727E1,3.89E1,-8.6231804E1,5.382248E1,2.3925514E1,-1.6510794E2,-2.3264224E2,-2.8581022E1,6.703E2,3.81E1,2.0033411E1,6.466854E0,-1.15998335E1,-8.9589294E1,-1.2568225E2,1.0899908E2,6.845333E1],"split_indices":[18,1,8,3,0,0,4,6,2,1,0,1,1,2,0,0,1,0,0,0,6,2,0,0,0,0,0,0,0],"split_type":[0,0,0,0,0,0,0,0,0,0,0,0,0,0,0,0,0,0,0,0,0,0,0,0,0,0,0,0,0],"sum_hessian":[8.17E2,5.98E2,2.19E2,5.67E2,3.1E1,6.9E1,1.5E2,3.8E2,1.87E2,1.15E2,3.5E1,7.6E1,3.04E2,1.53E2,3.4E1,3.8E1,7.7E1,4E1,3.6E1,4E1,2.64E2,1.22E2,3.1E1,3.9E1,3.8E1,1.21E2,1.43E2,7.8E1,4.4E1],"tree_param":{"num_deleted":"0","num_feature":"19","num_nodes":"29","size_leaf_vector":"1"}},{"base_weights":[-4.0476498E1,-1.1326625E3,1.01783875E3,-1.4699554E3,-7.5454803E2,1.2461571E3,-1.4394879E2,-7.264333E2,-1.8288374E3,-5.547654E2,-1.5292088E2,1.7113463E3,7.695723E2,-1.0711178E2,-3.807471E1,-2.2810012E3,-1.3640091E2,-4.369731E1,-9.186172E1,1.9842875E3,1.3257103E2,1.7959483E2,5.277832E2,-2.602794E2,-1.933055E2,1.6928598E2,2.0962231E2,1.2073254E1,6.4023395E2,7.7605774E1,5.6955105E1],"categories":[],"categories_nodes":[],"categories_segments":[],"categories_sizes":[],"default_left":[0,0,0,0,0,0,0,0,0,0,0,0,0,0,0,0,0,0,0,0,0,0,0,0,0,0,0,0,0,0,0],"id":7,"left_children":[1,3,5,7,9,11,-1,13,15,17,-1,19,21,-1,-1,23,-1,-1,-1,25,-1,-1,27,-1,-1,-1,-1,-1,29,-1,-1],"loss_changes":[9.512838E8,5.0542624E7,2.3631392E8,5.550768E7,2.9021064E7,8.359488E7,0E0,8.052012E6,2.6944256E7,6.24172E6,0E0,1.768384E7,4.6451944E7,0E0,0E0,2.918272E6,0E0,0E0,0E0,7.2352E4,0E0,0E0,7.063312E6,0E0,0E0,0E0,0E0,0E0,7.29248E5,0E0,0E0],"parents":[2147483647,0,0,1,1,2,2,3,3,4,4,5,5,7,7,8,8,9,9,11,11,12,12,15,15,19,19,22,22,28,28],"right_children":[2,4,6,8,10,12,-1,14,16,18,-1,20,22,-1,-1,24,-1,-1,-1,26,-1,-1,28,-1,-1,-1,-1,-1,30,-1,-1],"split_conditions":[1.3525753E1,4.87E1,7.891E2,1.3068033E1,4.06E1,2.9E0,-1.4394879E2,2.1903835E1,4.03E1,1.27E3,-1.5292088E2,1.3950617E0,3.69E1,-1.0711178E2,-3.807471E1,2.2569126E1,-1.3640091E2,-4.369731E1,-9.186172E1,2.3353424E1,1.3257103E2,1.7959483E2,2.2921097E1,-2.602794E2,-1.933055E2,1.6928598E2,2.0962231E2,1.2073254E1,2.293589E1,7.7605774E1,5.6955105E1],"split_indices":[3,14,6,3,2,4,0,1,2,11,0,7,2,0,0,1,0,0,0,1,0,0,1,0,0,0,0,0,1,0,0],"split_type":[0,0,0,0,0,0,0,0,0,0,0,0,0,0,0,0,0,0,0,0,0,0,0,0,0,0,0,0,0,0,0],"sum_hessian":[8.21E2,4.04E2,4.17E2,2.12E2,1.92E2,3.82E2,3.5E1,7E1,1.42E2,1.54E2,3.8E1,1.92E2,1.9E2,3.4E1,3.6E1,7E1,7.2E1,1.18E2,3.6E1,1.1E2,8.2E1,3.5E1,1.55E2,3.3E1,3.7E1,3.5E1,7.5E1,3.4E1,1.21E2,3.8E1,8.3E1],"tree_param":{"num_deleted":"0","num_feature":"19","num_nodes":"31","size_leaf_vector":"1"}},{"base_weights":[1.5489325E2,-6.057692E2,1.076246E3,-1.1421886E3,-2.3659851E2,1.9030642E3,2.0740149E2,-1.6461178E3,-4.044193E2,4.910141E1,-3.695947E2,2.8996255E2,1.6528976E3,1.4236176E2,-5.97676E1,-1.5008055E2,-1.8684526E2,-4.711091E1,-3.2139202E1,-4.8635226E2,-1.5169698E2,1.1081176E2,2.2342363E2,1.7993181E2,-7.527488E1,-5.3309424E2,-3.1395004E1,-2.3994894E1,-7.2031717E0,2.7410107E2,-2.9099731E0,-6.0763447E1,-4.8841675E1,3.076741E1,2.3451487E1],"categories":[],"categories_nodes":[],"categories_segments":[],"categories_sizes":[],"default_left":[0,0,0,0,0,0,0,0,0,0,0,0,0,0,0,0,0,0,0,0,0,0,0,0,0,0,0,0,0,0,0,0,0,0,0],"id":8,"left_children":[1,3,5,7,9,11,13,15,17,-1,19,-1,21,-1,23,-1,-1,-1,-1,25,27,-1,-1,29,-1,31,-1,-1,-1,33,-1,-1,-1,-1,-1],"loss_changes":[5.7814285E8,8.923949E7,2.6755968E8,6.774245E7,2.6212528E7,4.282483E7,5.954825E7,7.17376E5,2.69406E5,0E0,5.726818E6,0E0,4.661296E7,0E0,2.5217626E7,0E0,0E0,0E0,0E0,1.02528E6,5.521959E5,0E0,0E0,2.2323078E6,0E0,8.6202E4,0E0,0E0,0E0,3.15095E4,0E0,0E0,0E0,0E0,0E0],"parents":[2147483647,0,0,1,1,2,2,3,3,4,4,5,5,6,6,7,7,8,8,10,10,12,12,14,14,19,19,20,20,23,23,25,25,29,29],"right_children":[2,4,6,8,10,12,14,16,18,-1,20,-1,22,-1,24,-1,-1,-1,-1,26,28,-1,-1,30,-1,32,-1,-1,-1,34,-1,-1,-1,-1,-1],"split_conditions":[2.2911781E1,2.008E3,1.3950617E0,3.82E1,2.1719727E1,4.42E1,2.015E3,2.006E3,2.004E3,4.910141E1,2.012E3,2.8996255E2,4.918E2,1.4236176E2,2.022E3,-1.5008055E2,-1.8684526E2,-4.711091E1,-3.2139202E1,3.99E1,2.013E3,1.1081176E2,2.2342363E2,2.018E3,-7.527488E1,2.1933151E1,-3.1395004E1,-2.3994894E1,-7.2031717E0,2.017E3,-2.9099731E0,-6.0763447E1,-4.8841675E1,3.076741E1,2.3451487E1],"split_indices":[1,0,7,8,1,14,0,0,0,0,0,0,6,0,0,0,0,0,0,2,0,0,0,0,0,1,0,0,0,0,0,0,0,0,0],"split_type":[0,0,0,0,0,0,0,0,0,0,0,0,0,0,0,0,0,0,0,0,0,0,0,0,0,0,0,0,0,0,0,0,0,0,0],"sum_hessian":[8.23E2,4.51E2,3.72E2,1.83E2,2.68E2,1.9E2,1.82E2,1.08E2,7.5E1,4.1E1,2.27E2,3.6E1,1.54E2,3.2E1,1.5E2,7E1,3.8E1,3.9E1,3.6E1,1.47E2,8E1,8.1E1,7.3E1,1.12E2,3.8E1,1.14E2,3.3E1,3.7E1,4.3E1,7.7E1,3.5E1,3.8E1,7.6E1,3.8E1,3.9E1],"tree_param":{"num_deleted":"0","num_feature":"19","num_nodes":"35","size_leaf_vector":"1"}},{"base_weights":[1.14381676E2,-5.837944E2,6.1199585E2,-8.780643E2,-3.486015E1,8.612426E2,-3.170168E2,-4.4922427E2,-1.0710493E3,1.7266295E2,-4.649758E1,1.0775023E3,3.3242398E2,-7.241457E1,-9.960596E1,-3.3643764E1,-5.5239838E1,-1.3456496E2,-9.6341484E1,4.32265E0,2.805248E1,1.3041725E3,7.6105945E2,4.828009E2,3.4793985E0,-1.1144222E1,-8.699703E0,1.1583175E3,1.7150938E2,8.485937E1,5.9288025E1,5.6977314E1,4.010232E1,9.210252E1,1.2665431E2],"categories":[],"categories_nodes":[],"categories_segments":[],"categories_sizes":[],"default_left":[0,0,0,0,0,0,0,0,0,0,0,0,0,0,0,0,0,0,0,0,0,0,0,0,0,0,0,0,0,0,0,0,0,0,0],"id":9,"left_children":[1,3,5,7,9,11,13,15,17,19,-1,21,23,-1,25,-1,-1,-1,-1,-1,-1,27,29,31,-1,-1,-1,33,-1,-1,-1,-1,-1,-1,-1],"loss_changes":[2.8211677E8,5.456817E7,1.1002934E8,1.7725984E7,1.0702097E7,4.241325E7,8.867809E6,6.28719E5,3.166592E6,1.1187358E6,0E0,1.8015424E7,4.906436E6,0E0,3.041875E2,0E0,0E0,0E0,0E0,0E0,0E0,7.183408E6,1.160404E6,2.90714E5,0E0,0E0,0E0,1.81248E6,0E0,0E0,0E0,0E0,0E0,0E0,0E0],"parents":[2147483647,0,0,1,1,2,2,3,3,4,4,5,5,6,6,7,7,8,8,9,9,11,11,12,12,14,14,21,21,22,22,23,23,27,27],"right_children":[2,4,6,8,10,12,14,16,18,20,-1,22,24,-1,26,-1,-1,-1,-1,-1,-1,28,30,32,-1,-1,-1,34,-1,-1,-1,-1,-1,-1,-1],"split_conditions":[1.7684425E1,3.9E1,2.9123287E0,3.69E1,2.014E3,1.9132055E1,2.004E3,2.006E3,2.003E3,2.005E3,-4.649758E1,8.93E2,2.02E3,-7.241457E1,2.012E3,-3.3643764E1,-5.5239838E1,-1.3456496E2,-9.6341484E1,4.32265E0,2.805248E1,2.018E3,2.017E3,2.015E3,3.4793985E0,-1.1144222E1,-8.699703E0,1.7986576E1,1.7150938E2,8.485937E1,5.9288025E1,5.6977314E1,4.010232E1,9.210252E1,1.2665431E2],"split_indices":[5,8,12,2,0,13,0,0,0,0,0,11,0,0,0,0,0,0,0,0,0,0,0,0,0,0,0,5,0,0,0,0,0,0,0],"split_type":[0,0,0,0,0,0,0,0,0,0,0,0,0,0,0,0,0,0,0,0,0,0,0,0,0,0,0,0,0,0,0,0,0,0,0],"sum_hessian":[8.1E2,3.37E2,4.73E2,2.19E2,1.18E2,3.73E2,1E2,6.9E1,1.5E2,8E1,3.8E1,2.64E2,1.09E2,3.4E1,6.6E1,3.5E1,3.4E1,3.9E1,1.11E2,3.7E1,4.3E1,1.52E2,1.12E2,7.2E1,3.7E1,3E1,3.6E1,1.15E2,3.7E1,7.1E1,4.1E1,3.2E1,4E1,3.9E1,7.6E1],"tree_param":{"num_deleted":"0","num_feature":"19","num_nodes":"35","size_leaf_vector":"1"}},{"base_weights":[-4.0554193E2,-1.760501E3,2.1599077E2,-1.3830253E3,-3.9591595E2,4.0065158E2,-1.0978829E3,-1.930915E3,-1.0812257E3,-6.2950616E2,6.733234E2,-7.6317406E1,-1.3684677E2,-2.2912154E2,-1.5759843E2,-5.2702847E1,-1.2295644E2,-5.052085E1,-8.778656E1,1.933053E2,5.353656E2,2.3629301E2,1.1121377E3,-3.089183E1,5.2835365E1,8.332529E1,1.2516227E2],"categories":[],"categories_nodes":[],"categories_segments":[],"categories_sizes":[],"default_left":[0,0,0,0,0,0,0,0,0,0,0,0,0,0,0,0,0,0,0,0,0,0,0,0,0,0,0],"id":10,"left_children":[1,3,5,7,-1,9,11,13,15,17,19,-1,-1,-1,-1,-1,-1,-1,-1,-1,21,23,25,-1,-1,-1,-1],"loss_changes":[7.044188E8,2.127986E8,1.397043E8,3.5282016E7,0E0,1.4199493E8,5.38588E6,6.491712E6,1.1518896E7,2.828768E6,6.830715E7,0E0,0E0,0E0,0E0,0E0,0E0,0E0,0E0,0E0,6.200852E7,3.822033E7,3.741808E6,0E0,0E0,0E0,0E0],"parents":[2147483647,0,0,1,1,2,2,3,3,5,5,6,6,7,7,8,8,9,9,10,10,20,20,21,21,22,22],"right_children":[2,4,6,8,-1,10,12,14,16,18,20,-1,-1,-1,-1,-1,-1,-1,-1,-1,22,24,26,-1,-1,-1,-1],"split_conditions":[2.009E3,2.2911781E1,3.4E0,2.004E3,-3.9591595E2,2.012E3,2.015E3,2.003E3,2.1903835E1,2.011E3,1.7749918E1,-7.6317406E1,-1.3684677E2,-2.2912154E2,-1.5759843E2,-5.2702847E1,-1.2295644E2,-5.052085E1,-8.778656E1,1.933053E2,1.41543E3,1.3476713E0,2.018E3,-3.089183E1,5.2835365E1,8.332529E1,1.2516227E2],"split_indices":[0,1,4,0,0,0,0,0,1,0,16,0,0,0,0,0,0,0,0,0,17,7,0,0,0,0,0],"split_type":[0,0,0,0,0,0,0,0,0,0,0,0,0,0,0,0,0,0,0,0,0,0,0,0,0,0,0],"sum_hessian":[8.35E2,2.62E2,5.73E2,2.25E2,3.7E1,5.03E2,7E1,7.8E1,1.47E2,1.05E2,3.98E2,3.3E1,3.7E1,3.6E1,4.2E1,3.2E1,1.15E2,7.2E1,3.3E1,3.8E1,3.6E2,2.38E2,1.22E2,8.3E1,1.55E2,4.3E1,7.9E1],"tree_param":{"num_deleted":"0","num_feature":"19","num_nodes":"27","size_leaf_vector":"1"}},{"base_weights":[-3.160076E2,-7.122736E2,7.5189734E2,-4.534381E2,-2.546584E3,1.6972672E3,2.8053754E2,-6.384552E1,-9.761613E2,-3.0578708E2,-1.9802895E2,1.13589615E2,2.2270854E2,-2.883857E2,8.229634E2,-2.9759982E2,3.4365128E2,-1.7597803E3,-6.1161914E2,-3.4946133E1,-2.138355E1,1.01593925E2,5.9731415E1,-1.8421912E2,-7.87972E1,2.2303938E1,5.140177E1,-2.1456609E2,-1.3464546E2,-4.6604424E1,-7.690832E1,-3.7408578E0,-2.3893908E1],"categories":[],"categories_nodes":[],"categories_segments":[],"categories_sizes":[],"default_left":[0,0,0,0,0,0,0,0,0,0,0,0,0,0,0,0,0,0,0,0,0,0,0,0,0,0,0,0,0,0,0,0,0],"id":11,"left_children":[1,3,5,7,9,11,13,15,17,-1,-1,-1,-1,19,21,23,25,27,29,-1,-1,-1,-1,31,-1,-1,-1,-1,-1,-1,-1,-1,-1],"loss_changes":[3.3907514E8,2.7611952E8,9.6221064E7,1.0440967E8,1.4791328E7,1.8884848E7,4.5292736E7,2.8202238E7,6.1483696E7,0E0,0E0,0E0,0E0,2.531025E5,2.659028E6,1.0307406E7,2.104561E6,8.116064E6,3.102924E6,0E0,0E0,0E0,0E0,1.228216E6,0E0,0E0,0E0,0E0,0E0,0E0,0E0,0E0,0E0],"parents":[2147483647,0,0,1,1,2,2,3,3,4,4,5,5,6,6,7,7,8,8,13,13,14,14,15,15,16,16,17,17,18,18,23,23],"right_children":[2,4,6,8,10,12,14,16,18,-1,-1,-1,-1,20,22,24,26,28,30,-1,-1,-1,-1,32,-1,-1,-1,-1,-1,-1,-1,-1,-1],"split_conditions":[2.018E3,2.3025206E1,3.95E1,3.99E1,2.007E3,2.019E3,4.08E1,3.84E1,6.028E2,-3.0578708E2,-1.9802895E2,1.13589615E2,2.2270854E2,2.02E3,2.022E3,3.69E1,2.015E3,2.003E3,2.005E3,-3.4946133E1,-2.138355E1,1.01593925E2,5.9731415E1,2.1719727E1,-7.87972E1,2.2303938E1,5.140177E1,-2.1456609E2,-1.3464546E2,-4.6604424E1,-7.690832E1,-3.7408578E0,-2.3893908E1],"split_indices":[0,1,2,2,0,0,2,2,6,0,0,0,0,0,0,2,0,0,0,0,0,0,0,1,0,0,0,0,0,0,0,0,0],"split_type":[0,0,0,0,0,0,0,0,0,0,0,0,0,0,0,0,0,0,0,0,0,0,0,0,0,0,0,0,0,0,0,0,0],"sum_hessian":[7.99E2,5.83E2,2.16E2,5.12E2,7.1E1,7.1E1,1.45E2,2.94E2,2.18E2,3.5E1,3.6E1,3.6E1,3.5E1,7.1E1,7.4E1,1.87E2,1.07E2,6.8E1,1.5E2,3.7E1,3.4E1,3.8E1,3.6E1,1.53E2,3.4E1,6.4E1,4.3E1,3.3E1,3.5E1,8E1,7E1,4.2E1,1.11E2],"tree_param":{"num_deleted":"0","num_feature":"19","num_nodes":"33","size_leaf_vector":"1"}},{"base_weights":[1.5985152E2,-8.8474054E2,1.0472866E3,-2.7584747E2,-1.1366857E3,1.472572E3,1.60904E2,-2.3080954E1,-3.5339745E1,-1.0173933E3,-1.915397E2,2.6533572E2,1.1045333E3,7.203918E1,-3.2081924E1,-1.1846348E2,-7.080291E1,4.772753E2,1.7775262E3,-3.723128E1,1.5738081E2,1.5459627E1,6.4268176E2,1.2040564E2,2.0873625E2,2.3624767E1,8.838115E0,4.754322E1,8.194265E1],"categories":[],"categories_nodes":[],"categories_segments":[],"categories_sizes":[],"default_left":[0,0,0,0,0,0,0,0,0,0,0,0,0,0,0,0,0,0,0,0,0,0,0,0,0,0,0,0,0],"id":12,"left_children":[1,3,5,7,9,11,13,-1,-1,15,-1,-1,17,-1,19,-1,-1,21,23,-1,25,-1,27,-1,-1,-1,-1,-1,-1],"loss_changes":[7.76832E8,5.8748384E7,1.7052851E8,3.16599E5,2.3318528E7,1.3004915E8,1.6003154E7,0E0,0E0,1.1475024E7,0E0,0E0,9.835459E7,0E0,7.213774E6,0E0,0E0,6.465548E6,1.7564736E7,0E0,3.7092875E5,0E0,2.004814E6,0E0,0E0,0E0,0E0,0E0,0E0],"parents":[2147483647,0,0,1,1,2,2,3,3,4,4,5,5,6,6,9,9,12,12,14,14,17,17,18,18,20,20,22,22],"right_children":[2,4,6,8,10,12,14,-1,-1,16,-1,-1,18,-1,20,-1,-1,22,24,-1,26,-1,28,-1,-1,-1,-1,-1,-1],"split_conditions":[1.3450959E1,4.24E1,1.9132055E1,2.012E3,3.4794521E0,1.818441E1,4.919E2,-2.3080954E1,-3.5339745E1,2.009E3,-1.915397E2,2.6533572E2,1.8458551E1,7.203918E1,2.004E3,-1.1846348E2,-7.080291E1,3.69E1,2.018E3,-3.723128E1,2.015E3,1.5459627E1,2.016E3,1.2040564E2,2.0873625E2,2.3624767E1,8.838115E0,4.754322E1,8.194265E1],"split_indices":[3,14,13,0,12,16,6,0,0,0,0,0,16,0,0,0,0,2,0,0,0,0,0,0,0,0,0,0,0],"split_type":[0,0,0,0,0,0,0,0,0,0,0,0,0,0,0,0,0,0,0,0,0,0,0,0,0,0,0,0,0],"sum_hessian":[8.36E2,3.84E2,4.52E2,1.13E2,2.71E2,3.05E2,1.47E2,7.4E1,3.9E1,2.37E2,3.4E1,7.1E1,2.34E2,3.7E1,1.1E2,1.52E2,8.5E1,1.22E2,1.12E2,3.9E1,7.1E1,4.2E1,8E1,4.1E1,7.1E1,3.2E1,3.9E1,4.3E1,3.7E1],"tree_param":{"num_deleted":"0","num_feature":"19","num_nodes":"29","size_leaf_vector":"1"}},{"base_weights":[-2.4561934E2,1.4056655E3,-5.2166327E2,1.0607697E3,2.0947708E2,-9.4259094E2,1.8401608E2,7.504031E1,1.3237108E2,-2.0890835E3,-5.5172736E2,-1.4729236E2,4.1275226E2,-1.576331E3,-3.0326254E2,-9.2682184E2,1.899153E2,1.2675472E2,1.0300242E2,-1.2493569E2,-1.8695389E2,-1.1026034E3,-7.537276E1,-7.551471E1,7.0180756E1,4.970537E1,1.8226345E1,-9.346261E1,-1.17913284E2,2.7899044E0,-1.7968248E1,-6.637914E0,1.7356314E1],"categories":[],"categories_nodes":[],"categories_segments":[],"categories_sizes":[],"default_left":[0,0,0,0,0,0,0,0,0,0,0,0,0,0,0,0,0,0,0,0,0,0,0,0,0,0,0,0,0,0,0,0,0],"id":13,"left_children":[1,3,5,7,-1,9,11,-1,-1,13,15,-1,17,19,-1,21,23,25,-1,-1,-1,27,-1,29,-1,-1,31,-1,-1,-1,-1,-1,-1],"loss_changes":[3.7223245E8,2.558528E7,2.0780435E8,5.535336E6,0E0,1.9512493E8,9.990648E7,0E0,0E0,4.892176E7,9.142105E7,0E0,4.064978E7,4.758768E6,0E0,5.801984E6,1.5134738E7,6.380824E6,0E0,0E0,0E0,2.606E5,0E0,8.021691E5,0E0,0E0,1.6411715E6,0E0,0E0,0E0,0E0,0E0,0E0],"parents":[2147483647,0,0,1,1,2,2,3,3,5,5,6,6,9,9,10,10,12,12,13,13,15,15,16,16,17,17,21,21,23,23,26,26],"right_children":[2,4,6,8,-1,10,12,-1,-1,14,16,-1,18,20,-1,22,24,26,-1,-1,-1,28,-1,30,-1,-1,32,-1,-1,-1,-1,-1,-1],"split_conditions":[1.28413E3,2.2473425E1,6.69976E3,2.1719727E1,2.0947708E2,9.31E2,1.320137E1,7.504031E1,1.3237108E2,2.3025206E1,2.2486301E1,-1.4729236E2,1.3737705E1,2.293589E1,-3.0326254E2,3.5778081E0,1.9E0,1.3227397E1,1.0300242E2,-1.2493569E2,-1.8695389E2,2.2012295E1,-7.537276E1,2.2569126E1,7.0180756E1,4.970537E1,2.2950546E1,-9.346261E1,-1.17913284E2,2.7899044E0,-1.7968248E1,-6.637914E0,1.7356314E1],"split_indices":[17,1,15,1,0,11,3,0,0,1,1,0,3,1,0,18,4,3,0,0,0,1,0,1,0,0,1,0,0,0,0,0,0],"split_type":[0,0,0,0,0,0,0,0,0,0,0,0,0,0,0,0,0,0,0,0,0,0,0,0,0,0,0,0,0,0,0,0,0],"sum_hessian":[8.14E2,1.16E2,6.98E2,7.9E1,3.7E1,4.37E2,2.61E2,3.8E1,4.1E1,1.1E2,3.27E2,3.1E1,2.3E2,7.3E1,3.7E1,2.17E2,1.1E2,1.58E2,7.2E1,3.7E1,3.6E1,1.05E2,1.12E2,7.3E1,3.7E1,3.5E1,1.23E2,3.7E1,6.8E1,3.7E1,3.6E1,8E1,4.3E1],"tree_param":{"num_deleted":"0","num_feature":"19","num_nodes":"33","size_leaf_vector":"1"}},{"base_weights":[-2.8836237E2,-1.1981356E3,-3.4086487E1,-3.0493845E2,-2.604709E3,-1.6904646E2,6.4858284E1,1.0980423E1,-4.9192604E1,-3.4179886E2,-1.8089537E2,-1.5204105E2,4.5983905E2,6.7511196E0,-3.2623648E2,1.1558468E2,7.723244E2,-1.7844952E1,5.5566307E1,-1.946032E2,-5.4662045E1,-1.2606445E1,3.6500195E1,8.756738E1,5.8612007E1,-1.9419958E-1,1.1239697E1,-7.106453E0,-2.5239576E1,-8.92418E0,6.012157E0],"categories":[],"categories_nodes":[],"categories_segments":[],"categories_sizes":[],"default_left":[0,0,0,0,0,0,0,0,0,0,0,0,0,0,0,0,0,0,0,0,0,0,0,0,0,0,0,0,0,0,0],"id":14,"left_children":[1,3,5,7,9,-1,11,-1,-1,-1,-1,13,15,17,19,21,23,-1,25,27,-1,29,-1,-1,-1,-1,-1,-1,-1,-1,-1],"loss_changes":[1.8849586E8,2.2283554E8,1.0467142E8,8.584706E6,3.847181E7,0E0,5.172956E7,0E0,0E0,0E0,0E0,1.0789943E7,2.2931664E7,1.8632394E6,5.28946E6,3.297828E6,1.642092E6,0E0,5.3294056E5,8.24538E5,0E0,3.899394E5,0E0,0E0,0E0,0E0,0E0,0E0,0E0,0E0,0E0],"parents":[2147483647,0,0,1,1,2,2,3,3,4,4,6,6,11,11,12,12,13,13,14,14,15,15,16,16,18,18,19,19,21,21],"right_children":[2,4,6,8,10,-1,12,-1,-1,-1,-1,14,16,18,20,22,24,-1,26,28,-1,30,-1,-1,-1,-1,-1,-1,-1,-1,-1],"split_conditions":[3.7E1,3.9E1,2.003E3,3.64E1,2.007E3,-1.6904646E2,3.82E1,1.0980423E1,-4.9192604E1,-3.4179886E2,-1.8089537E2,5.585E2,2.012E3,1.2627398E0,1.3323288E1,2.005E3,2.019E3,-1.7844952E1,2.2950546E1,3.99E1,-5.4662045E1,2.004E3,3.6500195E1,8.756738E1,5.8612007E1,-1.9419958E-1,1.1239697E1,-7.106453E0,-2.5239576E1,-8.92418E0,6.012157E0],"split_indices":[2,8,0,2,0,0,8,0,0,0,0,6,0,7,3,0,0,0,1,2,0,0,0,0,0,0,0,0,0,0,0],"split_type":[0,0,0,0,0,0,0,0,0,0,0,0,0,0,0,0,0,0,0,0,0,0,0,0,0,0,0,0,0,0,0],"sum_hessian":[8.14E2,1.77E2,6.37E2,1.09E2,6.8E1,3.5E1,6.02E2,3.4E1,7.5E1,3.2E1,3.6E1,3.89E2,2.13E2,2.04E2,1.85E2,1.02E2,1.11E2,4.2E1,1.62E2,1.17E2,6.8E1,6.8E1,3.4E1,6.9E1,4.2E1,8.1E1,8.1E1,3.8E1,7.9E1,3.3E1,3.5E1],"tree_param":{"num_deleted":"0","num_feature":"19","num_nodes":"31","size_leaf_vector":"1"}},{"base_weights":[4.6884918E2,-2.4144084E2,1.1885044E3,-6.7466736E2,1.304262E2,2.4913315E3,8.848578E2,-5.506143E1,-8.6168816E1,2.5096353E2,-4.790433E1,3.3832187E2,1.5584329E2,-2.3299768E1,1.0268157E3,5.468598E1,1.7129517E2,1.3143038E3,5.43598E2,9.521769E0,2.4020796E1,1.0877154E2,1.4328262E2,-3.5508955E0,7.488372E1],"categories":[],"categories_nodes":[],"categories_segments":[],"categories_sizes":[],"default_left":[0,0,0,0,0,0,0,0,0,0,0,0,0,0,0,0,0,0,0,0,0,0,0,0,0],"id":15,"left_children":[1,3,5,7,9,11,13,-1,-1,15,-1,-1,-1,-1,17,-1,19,21,23,-1,-1,-1,-1,-1,-1],"loss_changes":[4.1688554E8,6.6301184E7,1.5801312E8,3.93364E6,1.6429192E7,5.796256E7,5.26064E7,0E0,0E0,4.29101E6,0E0,0E0,0E0,0E0,3.998893E7,0E0,7.53049E5,3.356096E6,1.3219544E7,0E0,0E0,0E0,0E0,0E0,0E0],"parents":[2147483647,0,0,1,1,2,2,3,3,4,4,5,5,6,6,9,9,14,14,16,16,17,17,18,18],"right_children":[2,4,6,8,10,12,14,-1,-1,16,-1,-1,-1,-1,18,-1,20,22,24,-1,-1,-1,-1,-1,-1],"split_conditions":[1.3525753E1,2.009E3,3.7E1,1.3159452E1,1.27E3,2.007E3,2.004E3,-5.506143E1,-8.6168816E1,2.1719727E1,-4.790433E1,3.3832187E2,1.5584329E2,-2.3299768E1,1.4286E3,5.468598E1,2.012E3,2.018E3,2.3727322E1,9.521769E0,2.4020796E1,1.0877154E2,1.4328262E2,-3.5508955E0,7.488372E1],"split_indices":[3,0,2,3,11,0,0,0,0,1,0,0,0,0,17,0,0,0,1,0,0,0,0,0,0],"split_type":[0,0,0,0,0,0,0,0,0,0,0,0,0,0,0,0,0,0,0,0,0,0,0,0,0],"sum_hessian":[8.14E2,4.1E2,4.04E2,1.89E2,2.21E2,7.5E1,3.29E2,1.16E2,7.3E1,1.85E2,3.6E1,3.7E1,3.8E1,3.7E1,2.92E2,3.8E1,1.47E2,1.82E2,1.1E2,7.1E1,7.6E1,6.6E1,1.16E2,2.9E1,8.1E1],"tree_param":{"num_deleted":"0","num_feature":"19","num_nodes":"25","size_leaf_vector":"1"}},{"base_weights":[-6.316261E1,-5.405237E2,1.1740137E3,-6.6437445E2,1.3597751E2,3.3863434E2,7.896568E2,-1.7535685E3,-4.9063202E2,1.4470642E3,3.0129016E2,-1.474534E2,-1.9608604E2,-8.269934E2,-1.8594423E2,1.8944792E2,1.0370902E2,3.4593376E1,1.9319044E1,-1.3330685E2,-7.267529E2,-3.805445E1,-9.388932E1,-8.9428246E1,-6.121713E1,4.370947E1,-2.5886652E1],"categories":[],"categories_nodes":[],"categories_segments":[],"categories_sizes":[],"default_left":[0,0,0,0,0,0,0,0,0,0,0,0,0,0,0,0,0,0,0,0,0,0,0,0,0,0,0],"id":16,"left_children":[1,3,5,7,-1,-1,9,11,13,15,17,-1,-1,19,21,-1,-1,-1,-1,-1,23,25,-1,-1,-1,-1,-1],"loss_changes":[4.7723248E8,1.381145E8,1.886489E8,1.0284272E8,0E0,0E0,6.1527784E7,1.446768E6,4.8424216E7,1.30764E7,4.73676E5,0E0,0E0,1.0445264E7,2.7802636E7,0E0,0E0,0E0,0E0,0E0,3.099744E6,2.2146066E7,0E0,0E0,0E0,0E0,0E0],"parents":[2147483647,0,0,1,1,2,2,3,3,6,6,7,7,8,8,9,9,10,10,13,13,14,14,20,20,21,21],"right_children":[2,4,6,8,-1,-1,10,12,14,16,18,-1,-1,20,22,-1,-1,-1,-1,-1,24,26,-1,-1,-1,-1,-1],"split_conditions":[2.3025206E1,1.27E3,2.007E3,6.47872E3,1.3597751E2,3.3863434E2,1.2627398E0,2.004E3,1.6515069E0,2.021E3,5.585E2,-1.474534E2,-1.9608604E2,2.1903835E1,2.015E3,1.8944792E2,1.0370902E2,3.4593376E1,1.9319044E1,-1.3330685E2,4.918E2,1.033E3,-9.388932E1,-8.9428246E1,-6.121713E1,4.370947E1,-2.5886652E1],"split_indices":[1,11,0,15,0,0,7,0,7,0,6,0,0,1,0,0,0,0,0,0,6,11,0,0,0,0,0],"split_type":[0,0,0,0,0,0,0,0,0,0,0,0,0,0,0,0,0,0,0,0,0,0,0,0,0,0,0],"sum_hessian":[8.06E2,5.82E2,2.24E2,5.47E2,3.5E1,3.2E1,1.92E2,7.4E1,4.73E2,8.1E1,1.11E2,3.5E1,3.9E1,2.24E2,2.49E2,3.7E1,4.4E1,7.7E1,3.4E1,3.5E1,1.89E2,2.09E2,4E1,7.4E1,1.15E2,6.6E1,1.43E2],"tree_param":{"num_deleted":"0","num_feature":"19","num_nodes":"27","size_leaf_vector":"1"}},{"base_weights":[-9.262242E1,-5.710506E2,5.404933E2,-7.591064E2,4.1760617E2,1.1877812E3,3.576463E2,-5.746173E2,-1.7718745E3,5.538619E1,2.7394651E1,9.4767395E1,1.3912761E2,-6.585781E1,5.1921313E2,-4.0152557E2,-1.17375244E2,-2.3463695E2,-1.2481402E2,-3.961963E-1,-1.309923E1,7.36991E2,3.67167E2,-5.64206E2,6.20461E0,6.0142433E1,8.3965485E1,2.2753538E1,4.2569386E1,-7.386795E1,-2.9118174E1,1.006542E1,-7.6593895E0],"categories":[],"categories_nodes":[],"categories_segments":[],"categories_sizes":[],"default_left":[0,0,0,0,0,0,0,0,0,0,0,0,0,0,0,0,0,0,0,0,0,0,0,0,0,0,0,0,0,0,0,0,0],"id":17,"left_children":[1,3,5,7,9,11,13,15,17,-1,-1,-1,-1,19,21,23,-1,-1,-1,-1,-1,25,27,29,31,-1,-1,-1,-1,-1,-1,-1,-1],"loss_changes":[2.4414344E8,8.565552E7,4.0644256E7,7.110387E7,1.296781E6,2.394928E6,1.8645584E7,3.3544048E7,1.4823488E7,0E0,0E0,0E0,0E0,3.0587906E5,6.25252E6,1.69839E7,0E0,0E0,0E0,0E0,0E0,6.08436E5,8.6746E5,8.502212E6,5.8641056E5,0E0,0E0,0E0,0E0,0E0,0E0,0E0,0E0],"parents":[2147483647,0,0,1,1,2,2,3,3,4,4,5,5,6,6,7,7,8,8,13,13,14,14,15,15,21,21,22,22,23,23,24,24],"right_children":[2,4,6,8,10,12,14,16,18,-1,-1,-1,-1,20,22,24,-1,-1,-1,-1,-1,26,28,30,32,-1,-1,-1,-1,-1,-1,-1,-1],"split_conditions":[2.2921097E1,7.891E2,6.63731E3,1.774548E1,2.1719727E1,2.3353424E1,3.89E1,1.9160547E1,2.2569126E1,5.538619E1,2.7394651E1,9.4767395E1,1.3912761E2,2.2950546E1,2.3453972E1,2.2473425E1,-1.17375244E2,-2.3463695E2,-1.2481402E2,-3.961963E-1,-1.309923E1,2.293589E1,2.3727322E1,1.8845081E1,2.2644657E1,6.0142433E1,8.3965485E1,2.2753538E1,4.2569386E1,-7.386795E1,-2.9118174E1,1.006542E1,-7.6593895E0],"split_indices":[1,6,15,5,1,1,2,13,1,0,0,0,0,1,1,1,0,0,0,0,0,1,1,13,1,0,0,0,0,0,0,0,0],"split_type":[0,0,0,0,0,0,0,0,0,0,0,0,0,0,0,0,0,0,0,0,0,0,0,0,0,0,0,0,0,0,0,0,0],"sum_hessian":[8.04E2,4.58E2,3.46E2,3.85E2,7.3E1,7.5E1,2.71E2,3.27E2,5.8E1,3.6E1,3.7E1,3.7E1,3.8E1,7.5E1,1.96E2,2.55E2,7.2E1,2.6E1,3.2E1,3.9E1,3.6E1,7.9E1,1.17E2,1.82E2,7.3E1,3.7E1,4.2E1,3.6E1,8.1E1,1.1E2,7.2E1,3.4E1,3.9E1],"tree_param":{"num_deleted":"0","num_feature":"19","num_nodes":"33","size_leaf_vector":"1"}},{"base_weights":[-4.2948666E0,-6.043723E2,3.9018692E2,-3.0162885E2,-3.068399E2,1.2743387E3,1.1214931E2,-9.272876E1,-9.47351E1,2.157835E2,8.2231177E2,-3.5191705E2,4.4668982E2,6.1539913E1,-2.2268532E2,1.15571106E2,4.516847E1,-8.5765816E1,-1.8321574E2,6.5169586E2,1.9710724E2,-3.8256674E2,2.2170593E1,-3.5728165E1,-9.394845E1,4.5258514E1,7.297819E1,3.0400538E-1,2.8578024E2,-3.0897108E1,-4.1487408E1,5.1233373E0,-6.715464E-1,-1.5571261E1,-3.4308548E0,3.2100418E1,2.4359642E1],"categories":[],"categories_nodes":[],"categories_segments":[],"categories_sizes":[],"default_left":[0,0,0,0,0,0,0,0,0,0,0,0,0,0,0,0,0,0,0,0,0,0,0,0,0,0,0,0,0,0,0,0,0,0,0,0,0],"id":18,"left_children":[1,3,5,7,-1,9,11,13,-1,-1,15,17,19,-1,21,-1,-1,-1,23,25,27,29,31,-1,33,-1,-1,-1,35,-1,-1,-1,-1,-1,-1,-1,-1],"loss_changes":[1.9694984E8,2.4524394E8,1.232625E8,3.9705116E7,0E0,4.614928E7,5.961757E7,2.0750832E7,0E0,0E0,9.4869E6,1.357925E7,1.1281548E7,0E0,7.446585E6,0E0,0E0,0E0,1.8621182E6,1.566536E6,1.7544002E6,1.45248E5,6.4146746E4,0E0,2.967137E5,0E0,0E0,0E0,2.5816E4,0E0,0E0,0E0,0E0,0E0,0E0,0E0,0E0],"parents":[2147483647,0,0,1,1,2,2,3,3,5,5,6,6,7,7,10,10,11,11,12,12,14,14,18,18,19,19,20,20,21,21,22,22,24,24,28,28],"right_children":[2,4,6,8,-1,10,12,14,-1,-1,16,18,20,-1,22,-1,-1,-1,24,26,28,30,32,-1,34,-1,-1,-1,36,-1,-1,-1,-1,-1,-1,-1,-1],"split_conditions":[2.011E3,2.2911781E1,2.82E1,2.009E3,-3.068399E2,2.293589E1,5.585E2,2.1903835E1,-9.47351E1,2.157835E2,2.017E3,3.12E1,1.774548E1,6.1539913E1,1.320137E1,1.15571106E2,4.516847E1,-8.5765816E1,2.016E3,2.013E3,2.012E3,2.003E3,2.004E3,-3.5728165E1,2.018E3,4.5258514E1,7.297819E1,3.0400538E-1,2.015E3,-3.0897108E1,-4.1487408E1,5.1233373E0,-6.715464E-1,-1.5571261E1,-3.4308548E0,3.2100418E1,2.4359642E1],"split_indices":[0,1,8,0,0,1,6,1,0,0,0,8,5,0,3,0,0,0,0,0,0,0,0,0,0,0,0,0,0,0,0,0,0,0,0,0,0],"split_type":[0,0,0,0,0,0,0,0,0,0,0,0,0,0,0,0,0,0,0,0,0,0,0,0,0,0,0,0,0,0,0,0,0,0,0,0,0],"sum_hessian":[8.3E2,3.29E2,5.01E2,2.94E2,3.5E1,1.19E2,3.82E2,2.23E2,7.1E1,3.9E1,8E1,1.6E2,2.22E2,3.4E1,1.89E2,4.1E1,3.9E1,3.9E1,1.21E2,1.21E2,1.01E2,1.14E2,7.5E1,4E1,8.1E1,3.6E1,8.5E1,3.2E1,6.9E1,3.8E1,7.6E1,3.7E1,3.8E1,3.9E1,4.2E1,3.4E1,3.5E1],"tree_param":{"num_deleted":"0","num_feature":"19","num_nodes":"37","size_leaf_vector":"1"}},{"base_weights":[2.0333055E2,2.117273E2,1.1181097E2,2.6305582E2,-5.7119275E2,-7.9764755E1,6.2382764E2,-3.168787E2,-8.1746185E1,-4.7061185E2,2.303587E2,3.1276105E2,9.622062E2,-4.0836998E1,-2.2176863E1,-2.6601156E1,-5.5145844E1,1.4206876E2,3.6763203E1,9.5269005E1,9.690861E1,5.6329884E1,1.0901006E2,1.9453386E1,3.7531536E0,1.3327564E0,2.5209827E1],"categories":[],"categories_nodes":[],"categories_segments":[],"categories_sizes":[],"default_left":[0,0,0,0,0,0,0,0,0,0,0,0,0,0,0,0,0,0,0,0,0,0,0,0,0,0,0],"id":19,"left_children":[1,-1,3,5,7,9,11,13,-1,15,17,19,21,-1,-1,-1,-1,23,-1,-1,25,-1,-1,-1,-1,-1,-1],"loss_changes":[1.4199579E8,0E0,8.031166E7,7.871024E7,8.571752E6,3.9744356E7,3.232912E7,5.272605E5,0E0,2.251786E6,2.165704E6,2.2422902E7,6.936608E6,0E0,0E0,0E0,0E0,6.1245375E5,0E0,0E0,1.5920624E6,0E0,0E0,0E0,0E0,0E0,0E0],"parents":[2147483647,0,0,2,2,3,3,4,4,5,5,6,6,7,7,9,9,10,10,11,11,12,12,17,17,20,20],"right_children":[2,-1,4,6,8,10,12,14,-1,16,18,20,22,-1,-1,-1,-1,24,-1,-1,26,-1,-1,-1,-1,-1,-1],"split_conditions":[3.5058904E0,2.117273E2,1.8464958E1,2.2569126E1,8.23E2,6.703E2,4.919E2,2.003E3,-8.1746185E1,2.005E3,1.7379179E1,2.016E3,3.69E1,-4.0836998E1,-2.2176863E1,-2.6601156E1,-5.5145844E1,2.009E3,3.6763203E1,9.5269005E1,2.021E3,5.6329884E1,1.0901006E2,1.9453386E1,3.7531536E0,1.3327564E0,2.5209827E1],"split_indices":[18,0,16,1,11,6,6,0,0,0,5,0,2,0,0,0,0,0,0,0,0,0,0,0,0,0,0],"split_type":[0,0,0,0,0,0,0,0,0,0,0,0,0,0,0,0,0,0,0,0,0,0,0,0,0,0,0],"sum_hessian":[8.11E2,3.6E1,7.75E2,6.35E2,1.4E2,3.26E2,3.09E2,7E1,7E1,1.44E2,1.82E2,1.62E2,1.47E2,3.4E1,3.6E1,4.2E1,1.02E2,1.12E2,7E1,4E1,1.22E2,3.7E1,1.1E2,7.4E1,3.8E1,8E1,4.2E1],"tree_param":{"num_deleted":"0","num_feature":"19","num_nodes":"27","size_leaf_vector":"1"}},{"base_weights":[7.5162544E1,-4.2407834E2,6.1262006E2,-8.7417823E-1,-7.9943823E2,2.4307441E3,2.2974191E2,1.5361131E2,-6.419671E1,-1.5427682E2,-6.5354834E2,3.1750806E2,1.5956912E2,-3.5080765E2,6.769932E2,3.3670723E1,-1.2504467E1,-7.658618E2,-2.2884571E1,4.0740185E1,-5.846159E2,3.4245697E2,1.2408126E3,2.2947607E0,-4.5372615E0,-1.0503267E2,-6.69357E1,-4.4361332E1,-6.538692E1,1.9295848E2,6.480062E1,9.644186E1,1.4127885E2,1.6098253E1,2.1957886E1],"categories":[],"categories_nodes":[],"categories_segments":[],"categories_sizes":[],"default_left":[0,0,0,0,0,0,0,0,0,0,0,0,0,0,0,0,0,0,0,0,0,0,0,0,0,0,0,0,0,0,0,0,0,0,0],"id":20,"left_children":[1,3,5,7,9,11,13,15,-1,-1,17,-1,-1,19,21,-1,23,25,-1,-1,27,29,31,-1,-1,-1,-1,-1,-1,33,-1,-1,-1,-1,-1],"loss_changes":[2.2457597E8,6.894188E7,2.7997792E8,2.0401722E7,2.393392E7,3.844275E7,8.696111E7,5.05312E6,0E0,0E0,9.078504E6,0E0,0E0,2.6120414E7,3.522388E7,0E0,1.0358266E5,3.497136E6,0E0,0E0,8.03604E5,5.356458E6,1.9648E6,0E0,0E0,0E0,0E0,0E0,0E0,3.4451E4,0E0,0E0,0E0,0E0,0E0],"parents":[2147483647,0,0,1,1,2,2,3,3,4,4,5,5,6,6,7,7,10,10,13,13,14,14,16,16,17,17,20,20,21,21,22,22,29,29],"right_children":[2,4,6,8,10,12,14,16,-1,-1,18,-1,-1,20,22,-1,24,26,-1,-1,28,30,32,-1,-1,-1,-1,-1,-1,34,-1,-1,-1,-1,-1],"split_conditions":[1.3525753E1,3.5886576E0,1.8782192E1,1.3250958E1,-7E-1,2.007E3,5.585E2,3.9E1,-6.419671E1,-1.5427682E2,1.9160547E1,3.1750806E2,1.5956912E2,2.293589E1,4.45E1,3.3670723E1,2.005E3,2.003E3,-2.2884571E1,4.0740185E1,2.018E3,2.017E3,2.015E3,2.2947607E0,-4.5372615E0,-1.0503267E2,-6.69357E1,-4.4361332E1,-6.538692E1,2.004E3,6.480062E1,9.644186E1,1.4127885E2,1.6098253E1,2.1957886E1],"split_indices":[3,18,13,3,4,0,6,8,0,0,13,0,0,1,14,0,0,0,0,0,0,0,0,0,0,0,0,0,0,0,0,0,0,0,0],"split_type":[0,0,0,0,0,0,0,0,0,0,0,0,0,0,0,0,0,0,0,0,0,0,0,0,0,0,0,0,0,0,0,0,0,0,0],"sum_hessian":[8.35E2,4.33E2,4.02E2,2.04E2,2.29E2,6.9E1,3.33E2,1.65E2,3.9E1,3.6E1,1.93E2,3.5E1,3.4E1,1.45E2,1.88E2,7.8E1,8.7E1,1.52E2,4.1E1,3.4E1,1.11E2,1.19E2,6.9E1,4.2E1,4.5E1,3.6E1,1.16E2,3.9E1,7.2E1,8.1E1,3.8E1,2.9E1,4E1,4E1,4.1E1],"tree_param":{"num_deleted":"0","num_feature":"19","num_nodes":"35","size_leaf_vector":"1"}},{"base_weights":[1.6140463E2,-1.8947388E2,9.5369934E2,5.31707E2,-4.5752814E2,1.7014352E3,-5.660462E1,2.941459E2,1.3154063E2,-1.3486392E2,-1.0474413E3,7.48521E1,2.053964E3,-3.6889805E1,9.608683E1,2.229736E2,4.2270874E1,3.055275E2,-4.7938748E2,-7.7331024E2,-1.3338467E3,2.5178357E2,1.8097777E2,-5.840215E0,2.3622828E1,1.915637E1,2.5429962E1,7.803113E1,8.447555E1,-1.0504211E2,-2.6795593E2,-9.3626396E1,-6.1134357E1,-1.5114252E2,-1.14938675E2,-1.3767265E0,1.677421E1,-3.5379402E1,-2.2967678E1],"categories":[],"categories_nodes":[],"categories_segments":[],"categories_sizes":[],"default_left":[0,0,0,0,0,0,0,0,0,0,0,0,0,0,0,0,0,0,0,0,0,0,0,0,0,0,0,0,0,0,0,0,0,0,0,0,0,0,0],"id":21,"left_children":[1,3,5,7,9,11,13,15,-1,17,19,-1,21,-1,23,25,-1,27,29,31,33,-1,-1,-1,-1,-1,-1,-1,35,-1,37,-1,-1,-1,-1,-1,-1,-1,-1],"loss_changes":[2.3008603E8,1.1120643E8,1.9197819E8,2.86566E7,7.961283E7,4.750829E7,5.23306E6,1.012911E6,0E0,4.1415724E7,1.0588384E7,0E0,7.450048E6,0E0,1.615919E6,3.00015E4,0E0,1.2528308E7,1.819092E7,1.486284E6,5.88472E5,0E0,0E0,0E0,0E0,0E0,0E0,0E0,6.8127756E5,0E0,2.90039E5,0E0,0E0,0E0,0E0,0E0,0E0,0E0,0E0],"parents":[2147483647,0,0,1,1,2,2,3,3,4,4,5,5,6,6,7,7,9,9,10,10,12,12,14,14,15,15,17,17,18,18,19,19,20,20,28,28,30,30],"right_children":[2,4,6,8,10,12,14,16,-1,18,20,-1,22,-1,24,26,-1,28,30,32,34,-1,-1,-1,-1,-1,-1,-1,36,-1,38,-1,-1,-1,-1,-1,-1,-1,-1],"split_conditions":[1.375726E1,1.7957973E1,1.3950617E0,3.81E1,3.24E1,7.86E2,4.07E1,3.64E1,1.3154063E2,2.1E0,1.3450959E1,7.48521E1,3.7E1,-3.6889805E1,4.16E1,3.63E1,4.2270874E1,-7E-1,1.3068033E1,3.84E1,3.98E1,2.5178357E2,1.8097777E2,-5.840215E0,2.3622828E1,1.915637E1,2.5429962E1,7.803113E1,3.69E1,-1.0504211E2,3.69E1,-9.3626396E1,-6.1134357E1,-1.5114252E2,-1.14938675E2,-1.3767265E0,1.677421E1,-3.5379402E1,-2.2967678E1],"split_indices":[3,16,7,2,8,11,2,2,0,4,3,0,2,0,2,2,0,4,3,2,2,0,0,0,0,0,0,0,2,0,2,0,0,0,0,0,0,0,0],"split_type":[0,0,0,0,0,0,0,0,0,0,0,0,0,0,0,0,0,0,0,0,0,0,0,0,0,0,0,0,0,0,0,0,0,0,0,0,0,0,0],"sum_hessian":[8.26E2,5.73E2,2.53E2,1.55E2,4.18E2,1.45E2,1.08E2,1.2E2,3.5E1,2.71E2,1.47E2,4E1,1.05E2,3.5E1,7.3E1,7.9E1,4.1E1,1.19E2,1.52E2,7.7E1,7E1,3.3E1,7.2E1,3.5E1,3.8E1,4.3E1,3.6E1,3.7E1,8.2E1,4E1,1.12E2,3.6E1,4.1E1,3.2E1,3.8E1,3.8E1,4.4E1,3.2E1,8E1],"tree_param":{"num_deleted":"0","num_feature":"19","num_nodes":"39","size_leaf_vector":"1"}},{"base_weights":[1.5075363E2,7.9729144E2,-3.018679E2,3.667018E2,1.3265652E3,-1.2891515E3,1.302345E2,-5.7687843E1,6.565828E2,1.0343243E2,1.5936607E2,-1.0854301E2,-1.4549649E2,-7.093245E1,1.5597592E2,2.156446E0,-1.4634498E1,5.7329285E1,7.993088E1,6.628609E1,-9.898744E1,4.7988345E2,-1.9926535E2,8.324251E0,6.653139E1,-5.1600006E1,1.1598242E1],"categories":[],"categories_nodes":[],"categories_segments":[],"categories_sizes":[],"default_left":[0,0,0,0,0,0,0,0,0,0,0,0,0,0,0,0,0,0,0,0,0,0,0,0,0,0,0],"id":22,"left_children":[1,3,5,7,9,11,13,15,17,-1,-1,-1,-1,19,-1,-1,-1,-1,-1,21,-1,23,25,-1,-1,-1,-1],"loss_changes":[2.3669133E8,7.540414E7,2.0323309E8,2.2797038E7,9.982032E6,3.3188E6,9.558492E7,5.3715325E5,8.49404E5,0E0,0E0,0E0,0E0,3.6885612E7,0E0,0E0,0E0,0E0,0E0,2.8102624E7,0E0,7.29955E6,1.5636434E7,0E0,0E0,0E0,0E0],"parents":[2147483647,0,0,1,1,2,2,3,3,4,4,5,5,6,6,7,7,8,8,13,13,19,19,21,21,22,22],"right_children":[2,4,6,8,10,12,14,16,18,-1,-1,-1,-1,20,-1,-1,-1,-1,-1,22,-1,24,26,-1,-1,-1,-1],"split_conditions":[9.31E2,2.4328768E0,1.018E3,2.015E3,1.3950617E0,3.8E1,2.014E3,2.003E3,2.018E3,1.0343243E2,1.5936607E2,-1.0854301E2,-1.4549649E2,2.2569126E1,1.5597592E2,2.156446E0,-1.4634498E1,5.7329285E1,7.993088E1,1.8845081E1,-9.898744E1,2.008E3,7.242E2,8.324251E0,6.653139E1,-5.1600006E1,1.1598242E1],"split_indices":[11,12,11,0,7,8,0,0,0,0,0,0,0,1,0,0,0,0,0,13,0,0,6,0,0,0,0],"split_type":[0,0,0,0,0,0,0,0,0,0,0,0,0,0,0,0,0,0,0,0,0,0,0,0,0,0,0],"sum_hessian":[8.07E2,3.32E2,4.75E2,1.84E2,1.48E2,1.44E2,3.31E2,7.5E1,1.09E2,7.3E1,7.5E1,6.8E1,7.6E1,2.91E2,4E1,4E1,3.5E1,7.2E1,3.7E1,2.54E2,3.7E1,9.9E1,1.55E2,3.2E1,6.7E1,7.7E1,7.8E1],"tree_param":{"num_deleted":"0","num_feature":"19","num_nodes":"27","size_leaf_vector":"1"}},{"base_weights":[-1.5606564E1,-1.8627727E2,1.1349849E3,6.8465314E2,-2.8143817E2,2.4240913E2,5.845123E2,8.2983986E1,5.4775787E1,-9.174473E1,-6.355737E2,6.581325E1,4.9996044E1,-2.2359006E2,2.4186273E2,-1.152951E2,-3.9578433E2,-3.1031552E2,1.137207E1,4.216553E1,1.3866354E2,-5.009031E2,-1.1204695E1,-2.5519854E1,-5.8347218E1,1.2297062E1,-9.789563E0,6.9873705E0,2.039868E1,-6.5725296E1,-4.152077E1],"categories":[],"categories_nodes":[],"categories_segments":[],"categories_sizes":[],"default_left":[0,0,0,0,0,0,0,0,0,0,0,0,0,0,0,0,0,0,0,0,0,0,0,0,0,0,0,0,0,0,0],"id":23,"left_children":[1,3,5,7,9,-1,11,-1,-1,13,15,-1,-1,17,19,-1,21,23,25,-1,27,29,-1,-1,-1,-1,-1,-1,-1,-1,-1],"loss_changes":[1.6418224E8,6.0528264E7,7.522179E7,9.76472E5,4.40771E7,0E0,1.50262E5,0E0,0E0,1.8923466E7,2.7953784E7,0E0,0E0,6.279707E6,2.2051745E6,0E0,4.656404E6,3.238602E6,1.0363442E6,0E0,3.4073912E5,1.267926E6,0E0,0E0,0E0,0E0,0E0,0E0,0E0,0E0,0E0],"parents":[2147483647,0,0,1,1,2,2,3,3,4,4,6,6,9,9,10,10,13,13,14,14,16,16,17,17,18,18,20,20,21,21],"right_children":[2,4,6,8,10,-1,12,-1,-1,14,16,-1,-1,18,20,-1,22,24,26,-1,28,30,-1,-1,-1,-1,-1,-1,-1,-1,-1],"split_conditions":[5.37E1,2.45E1,2.007E3,2.003E3,6.67553E3,2.4240913E2,2.01E3,8.2983986E1,5.4775787E1,2.014E3,3.05E1,6.581325E1,4.9996044E1,4.44E1,2.2473425E1,-1.152951E2,4.06E1,4.07E1,2.005E3,4.216553E1,2.017E3,3.95E1,-1.1204695E1,-2.5519854E1,-5.8347218E1,1.2297062E1,-9.789563E0,6.9873705E0,2.039868E1,-6.5725296E1,-4.152077E1],"split_indices":[14,8,0,0,15,0,0,0,0,0,8,0,0,8,1,0,2,2,0,0,0,2,0,0,0,0,0,0,0,0,0],"split_type":[0,0,0,0,0,0,0,0,0,0,0,0,0,0,0,0,0,0,0,0,0,0,0,0,0,0,0,0,0,0,0],"sum_hessian":[8.34E2,7.27E2,1.07E2,7.1E1,6.56E2,3.1E1,7.6E1,3.2E1,3.9E1,4.28E2,2.28E2,3.7E1,3.9E1,3.07E2,1.21E2,7.1E1,1.57E2,2.24E2,8.3E1,4.3E1,7.8E1,1.14E2,4.3E1,1.88E2,3.6E1,4.1E1,4.2E1,3.9E1,3.9E1,3.8E1,7.6E1],"tree_param":{"num_deleted":"0","num_feature":"19","num_nodes":"31","size_leaf_vector":"1"}},{"base_weights":[-3.032248E1,-2.0451115E2,1.6887434E3,-5.157353E2,3.5858896E2,1.221042E2,2.1883727E2,-1.8287543E2,-1.2544381E3,9.344504E1,2.4543295E2,-4.473932E2,1.6830399E1,-7.056185E1,-1.4310211E2,6.886487E1,5.519421E2,-8.9589676E1,-8.246406E1,-3.1216714E2,2.458034E2,-1.1620706E1,1.3760468E2,6.4715706E1,4.527484E1,1.0586064E1,-3.1040176E1,-3.803678E1,-2.3786732E1,4.0237648E1,1.7530611E1,1.9401205E1,1.0077546E1],"categories":[],"categories_nodes":[],"categories_segments":[],"categories_sizes":[],"default_left":[0,0,0,0,0,0,0,0,0,0,0,0,0,0,0,0,0,0,0,0,0,0,0,0,0,0,0,0,0,0,0,0,0],"id":24,"left_children":[1,3,5,7,9,-1,-1,11,13,-1,15,17,19,-1,-1,21,23,25,-1,27,29,-1,31,-1,-1,-1,-1,-1,-1,-1,-1,-1,-1],"loss_changes":[2.44091E8,1.29870184E8,1.4853712E7,1.1705752E8,1.6973468E7,0E0,0E0,1.7440024E7,1.3333248E7,0E0,1.1976569E7,1.9093344E7,1.4314395E7,0E0,0E0,1.8224875E6,4.72024E5,3.226536E6,0E0,3.04772E5,1.1657145E6,0E0,1.9650188E5,0E0,0E0,0E0,0E0,0E0,0E0,0E0,0E0,0E0,0E0],"parents":[2147483647,0,0,1,1,2,2,3,3,4,4,7,7,8,8,10,10,11,11,12,12,15,15,16,16,17,17,19,19,20,20,22,22],"right_children":[2,4,6,8,10,-1,-1,12,14,-1,16,18,20,-1,-1,22,24,26,-1,28,30,-1,32,-1,-1,-1,-1,-1,-1,-1,-1,-1,-1],"split_conditions":[2.022E3,4.87E1,2.023E3,1.8310137E1,2.1719727E1,1.221042E2,2.1883727E2,2.009E3,2.003E3,9.344504E1,2.2921097E1,2.2025137E1,2.82E1,-7.056185E1,-1.4310211E2,2.008E3,2.007E3,2.005E3,-8.246406E1,2.017E3,2.012E3,-1.1620706E1,2.01E3,6.4715706E1,4.527484E1,1.0586064E1,-3.1040176E1,-3.803678E1,-2.3786732E1,4.0237648E1,1.7530611E1,1.9401205E1,1.0077546E1],"split_indices":[0,14,0,16,1,0,0,0,0,0,1,1,8,0,0,0,0,0,0,0,0,0,0,0,0,0,0,0,0,0,0,0,0],"split_type":[0,0,0,0,0,0,0,0,0,0,0,0,0,0,0,0,0,0,0,0,0,0,0,0,0,0,0,0,0,0,0,0,0],"sum_hessian":[8.13E2,7.39E2,7.4E1,4.76E2,2.63E2,4E1,3.4E1,3.29E2,1.47E2,4.2E1,2.21E2,1.41E2,1.88E2,3.7E1,1.1E2,1.41E2,8E1,7.3E1,6.8E1,7.7E1,1.11E2,3.8E1,1.03E2,3.8E1,4.2E1,3.9E1,3.4E1,3.8E1,3.9E1,3.3E1,7.8E1,3.9E1,6.4E1],"tree_param":{"num_deleted":"0","num_feature":"19","num_nodes":"33","size_leaf_vector":"1"}},{"base_weights":[-1.09870415E2,3.0025018E2,-7.1987274E2,1.9487152E2,1.7951926E2,-5.776982E2,-1.8608687E2,1.9182148E1,7.202882E2,-7.664639E2,3.8523438E0,-1.0226994E2,3.8195825E2,1.9480394E2,2.0015038E2,-8.159473E2,-5.2789577E1,2.121601E1,-2.2770771E1,-2.7714453E2,-2.8241419E1,3.0306105E1,4.4303585E1,5.587367E1,-1.5475136E1,-5.5129852E1,-8.888022E2,-1.8385677E1,-3.7806965E1,4.1134176E0,-7.568498E0,-9.9297356E1,-7.7833595E1],"categories":[],"categories_nodes":[],"categories_segments":[],"categories_sizes":[],"default_left":[0,0,0,0,0,0,0,0,0,0,0,0,0,0,0,0,0,0,0,0,0,0,0,0,0,0,0,0,0,0,0,0,0],"id":25,"left_children":[1,3,5,7,-1,9,-1,11,13,15,17,19,21,-1,23,25,-1,-1,-1,27,29,-1,-1,-1,-1,-1,31,-1,-1,-1,-1,-1,-1],"loss_changes":[2.1036275E8,7.889028E7,5.3755536E7,4.3464256E7,0E0,3.315556E7,0E0,1.5636274E7,7.496487E7,2.26084E6,3.665992E6,3.435731E6,2.94611E5,0E0,1.0776548E7,3.115536E6,0E0,0E0,0E0,6.74281E5,6.2190125E5,0E0,0E0,0E0,0E0,0E0,8.95712E5,0E0,0E0,0E0,0E0,0E0,0E0],"parents":[2147483647,0,0,1,1,2,2,3,3,5,5,7,7,8,8,9,9,10,10,11,11,12,12,14,14,15,15,19,19,20,20,26,26],"right_children":[2,4,6,8,-1,10,-1,12,14,16,18,20,22,-1,24,26,-1,-1,-1,28,30,-1,-1,-1,-1,-1,32,-1,-1,-1,-1,-1,-1],"split_conditions":[1.9129234E1,7.42E0,2.3727322E1,1.37613E3,1.7951926E2,2.2921097E1,-1.8608687E2,6.851E2,2.3353424E1,5.37E1,2.293589E1,2.550685E0,2.2012295E1,1.9480394E2,2.3453972E1,2.1719727E1,-5.2789577E1,2.121601E1,-2.2770771E1,2.2950546E1,4.971E2,3.0306105E1,4.4303585E1,5.587367E1,-1.5475136E1,-5.5129852E1,3.98E1,-1.8385677E1,-3.7806965E1,4.1134176E0,-7.568498E0,-9.9297356E1,-7.7833595E1],"split_indices":[13,10,1,17,0,1,0,6,1,14,1,12,1,0,1,1,0,0,0,1,6,0,0,0,0,0,2,0,0,0,0,0,0],"split_type":[0,0,0,0,0,0,0,0,0,0,0,0,0,0,0,0,0,0,0,0,0,0,0,0,0,0,0,0,0,0,0,0,0],"sum_hessian":[8.39E2,5.02E2,3.37E2,4.7E2,3.2E1,3.01E2,3.6E1,3.53E2,1.17E2,2.27E2,7.4E1,2.65E2,8.8E1,3.4E1,8.3E1,1.86E2,4.1E1,3.9E1,3.5E1,7.8E1,1.87E2,4.1E1,4.7E1,4.1E1,4.2E1,4.2E1,1.44E2,4.2E1,3.6E1,7.6E1,1.11E2,7E1,7.4E1],"tree_param":{"num_deleted":"0","num_feature":"19","num_nodes":"33","size_leaf_vector":"1"}},{"base_weights":[1.8792638E2,-6.9801685E2,3.3297617E2,-3.5110462E1,-8.536288E2,-8.6498865E2,4.8801547E2,-6.934931E1,-9.959826E1,-3.9761623E1,-1.2998643E2,8.740403E2,9.9152855E1,3.964281E2,1.2622266E3,-6.573095E1,2.1777556E2,-4.4285587E1,1.6708311E2,1.4904411E2,8.979866E1,2.9197098E2,2.032033E1,-2.7564447E1,3.5431267E1,2.2833944E1,3.877629E1,-7.4767013E0,1.174284E1],"categories":[],"categories_nodes":[],"categories_segments":[],"categories_sizes":[],"default_left":[0,0,0,0,0,0,0,0,0,0,0,0,0,0,0,0,0,0,0,0,0,0,0,0,0,0,0,0,0],"id":26,"left_children":[1,3,5,-1,7,9,11,-1,-1,-1,-1,13,15,17,19,-1,21,23,-1,-1,-1,25,27,-1,-1,-1,-1,-1,-1],"loss_changes":[1.0406516E8,5.854428E6,1.2950561E8,0E0,1.08738E6,1.5743064E7,9.238146E7,0E0,0E0,0E0,0E0,5.678899E7,2.77811E7,7.870456E7,1.2792832E7,0E0,3.90569E6,9.780685E6,0E0,0E0,0E0,1.093965E6,6.920772E5,0E0,0E0,0E0,0E0,0E0,0E0],"parents":[2147483647,0,0,1,1,2,2,4,4,5,5,6,6,11,11,12,12,13,13,14,14,16,16,17,17,21,21,22,22],"right_children":[2,4,6,-1,8,10,12,-1,-1,-1,-1,14,16,18,20,-1,22,24,-1,-1,-1,26,28,-1,-1,-1,-1,-1,-1],"split_conditions":[2.1933151E1,2.006E3,1.2565573E0,-3.5110462E1,2.011E3,2.003E3,4.05E1,-6.934931E1,-9.959826E1,-3.9761623E1,-1.2998643E2,1.3525753E1,8.2E2,3.99E1,2.9E0,-6.573095E1,6.614E2,2.012E3,1.6708311E2,1.4904411E2,8.979866E1,2.02E3,2.004E3,-2.7564447E1,3.5431267E1,2.2833944E1,3.877629E1,-7.4767013E0,1.174284E1],"split_indices":[1,0,7,0,0,0,2,0,0,0,0,3,11,2,4,0,6,0,0,0,0,0,0,0,0,0,0,0,0],"split_type":[0,0,0,0,0,0,0,0,0,0,0,0,0,0,0,0,0,0,0,0,0,0,0,0,0,0,0,0,0],"sum_hessian":[8.07E2,1.13E2,6.94E2,3.6E1,7.7E1,7.9E1,6.15E2,3.9E1,3.8E1,3.9E1,4E1,3.08E2,3.07E2,1.39E2,1.69E2,4.1E1,2.66E2,1.04E2,3.5E1,1.02E2,6.7E1,1.93E2,7.3E1,6.6E1,3.8E1,1.18E2,7.5E1,3.7E1,3.6E1],"tree_param":{"num_deleted":"0","num_feature":"19","num_nodes":"29","size_leaf_vector":"1"}},{"base_weights":[-1.4696975E1,-6.764697E2,4.681366E2,-1.7358746E2,-4.0346893E2,1.0259543E3,2.3803395E2,-5.7787164E2,6.801239E1,1.2197709E3,4.3754093E1,1.04764694E2,7.396029E2,-7.0266675E2,1.0205055E0,1.6676031E2,1.0410817E2,5.83499E1,3.6903065E1,1.0086446E2,4.929881E1,-2.6815125E2,-9.711506E2,2.0998983E1,2.9128109E1,-2.2429228E1,-3.170231E1,-1.0680885E2,-7.6821594E1,-6.070293E-1,5.0884376E0],"categories":[],"categories_nodes":[],"categories_segments":[],"categories_sizes":[],"default_left":[0,0,0,0,0,0,0,0,0,0,0,0,0,0,0,0,0,0,0,0,0,0,0,0,0,0,0,0,0,0,0],"id":27,"left_children":[1,3,5,-1,7,9,11,13,-1,15,-1,17,19,21,-1,-1,-1,23,-1,-1,-1,25,27,-1,29,-1,-1,-1,-1,-1,-1],"loss_changes":[2.6360618E8,9.994762E7,6.098128E7,0E0,5.2929884E7,1.5318464E7,2.2582538E7,1.762056E7,0E0,6.586256E6,0E0,3.277981E6,4.213576E6,2.2838328E7,0E0,0E0,0E0,1.01305706E6,0E0,0E0,0E0,9.39415E4,1.579464E6,0E0,1.4887134E5,0E0,0E0,0E0,0E0,0E0,0E0],"parents":[2147483647,0,0,1,1,2,2,4,4,5,5,6,6,7,7,9,9,11,11,12,12,13,13,17,17,21,21,22,22,24,24],"right_children":[2,4,6,-1,8,10,12,14,-1,16,-1,18,20,22,-1,-1,-1,24,-1,-1,-1,26,28,-1,30,-1,-1,-1,-1,-1,-1],"split_conditions":[1.7684425E1,1.8501644E1,3.89E1,-1.7358746E2,4.06E1,2.016E3,4.84E1,1.27E3,6.801239E1,1.3450959E1,4.3754093E1,6.76569E3,2.015E3,2.009E3,1.0205055E0,1.6676031E2,1.0410817E2,2.004E3,3.6903065E1,1.0086446E2,4.929881E1,2.003E3,2.014E3,2.0998983E1,2.4918032E0,-2.2429228E1,-3.170231E1,-1.0680885E2,-7.6821594E1,-6.070293E-1,5.0884376E0],"split_indices":[5,13,2,0,2,0,14,11,0,3,0,15,0,0,0,0,0,0,0,0,0,0,0,0,12,0,0,0,0,0,0],"split_type":[0,0,0,0,0,0,0,0,0,0,0,0,0,0,0,0,0,0,0,0,0,0,0,0,0,0,0,0,0,0,0],"sum_hessian":[8.23E2,3.47E2,4.76E2,7E1,2.77E2,1.38E2,3.38E2,2.39E2,3.8E1,1.03E2,3.5E1,2.68E2,7E1,1.97E2,4.2E1,2.7E1,7.6E1,2.29E2,3.9E1,3.2E1,3.8E1,7.6E1,1.21E2,3.6E1,1.93E2,4.3E1,3.3E1,7.9E1,4.2E1,7.4E1,1.19E2],"tree_param":{"num_deleted":"0","num_feature":"19","num_nodes":"31","size_leaf_vector":"1"}},{"base_weights":[1.6256621E2,-3.5362433E2,5.822544E2,-7.680515E2,3.2277424E1,1.0669162E2,1.58512E3,-1.5795427E3,-2.8299377E2,3.2344324E2,-1.546432E2,2.978127E2,-1.25408165E2,2.2091099E3,9.5657416E2,-2.011779E2,-1.0574235E2,2.1431738E1,-5.8444214E1,2.272747E1,4.1110012E1,1.6035541E0,-2.504371E1,1.8649153E2,6.1320905E2,1.7679416E2,2.705322E2,6.877795E1,1.2364375E2,2.3997246E2,1.1218597E2,7.400805E1,4.6519238E1,2.637151E1,1.8429775E1,1.4850423E1,7.57959E0],"categories":[],"categories_nodes":[],"categories_segments":[],"categories_sizes":[],"default_left":[0,0,0,0,0,0,0,0,0,0,0,0,0,0,0,0,0,0,0,0,0,0,0,0,0,0,0,0,0,0,0,0,0,0,0,0,0],"id":28,"left_children":[1,3,5,7,9,11,13,15,17,19,21,23,-1,25,27,-1,-1,-1,-1,-1,-1,-1,-1,29,31,-1,-1,-1,-1,33,35,-1,-1,-1,-1,-1,-1],"loss_changes":[1.7720003E8,5.871844E7,2.149243E8,6.922374E7,1.0445174E7,8.021572E7,5.4756704E7,1.276752E7,1.6915584E7,5.388055E5,1.916964E6,9.36542E6,0E0,1.0978912E7,4.716312E6,0E0,0E0,0E0,0E0,0E0,0E0,0E0,0E0,7.71839E5,9.70256E5,0E0,0E0,0E0,0E0,1.04734E5,1.02403625E5,0E0,0E0,0E0,0E0,0E0,0E0],"parents":[2147483647,0,0,1,1,2,2,3,3,4,4,5,5,6,6,7,7,8,8,9,9,10,10,11,11,13,13,14,14,23,23,24,24,29,29,30,30],"right_children":[2,4,6,8,10,12,14,16,18,20,22,24,-1,26,28,-1,-1,-1,-1,-1,-1,-1,-1,30,32,-1,-1,-1,-1,34,36,-1,-1,-1,-1,-1,-1],"split_conditions":[4.54E1,6.65613E3,1.375726E1,3.8E1,4.971E2,2.2921097E1,2.3353424E1,2.2245754E1,2.2025137E1,2.1903835E1,2.2644657E1,1.765863E1,-1.25408165E2,2.293589E1,2.4302465E1,-2.011779E2,-1.0574235E2,2.1431738E1,-5.8444214E1,2.272747E1,4.1110012E1,1.6035541E0,-2.504371E1,7.753E2,2.2481918E1,1.7679416E2,2.705322E2,6.877795E1,1.2364375E2,4.03E1,2.1719727E1,7.400805E1,4.6519238E1,2.637151E1,1.8429775E1,1.4850423E1,7.57959E0],"split_indices":[14,15,3,8,6,1,1,1,1,1,1,5,0,1,1,0,0,0,0,0,0,0,0,6,1,0,0,0,0,2,1,0,0,0,0,0,0],"split_type":[0,0,0,0,0,0,0,0,0,0,0,0,0,0,0,0,0,0,0,0,0,0,0,0,0,0,0,0,0,0,0,0,0,0,0,0,0],"sum_hessian":[8.16E2,3.66E2,4.5E2,1.76E2,1.9E2,3.06E2,1.44E2,6.5E1,1.11E2,7.4E1,1.16E2,2.69E2,3.7E1,7.1E1,7.3E1,3.4E1,3.1E1,4.2E1,6.9E1,3.7E1,3.7E1,4.2E1,7.4E1,2E2,6.9E1,4E1,3.1E1,3.9E1,3.4E1,1.15E2,8.5E1,3.5E1,3.4E1,7.8E1,3.7E1,4.1E1,4.4E1],"tree_param":{"num_deleted":"0","num_feature":"19","num_nodes":"37","size_leaf_vector":"1"}}]},"name":"gbtree"},"learner_model_param":{"base_score":"9.955239E3","boost_from_average":"1","num_class":"0","num_feature":"19","num_target":"1"},"objective":{"name":"reg:squarederror","reg_loss_param":{"scale_pos_weight":"1"}}},"version":[3,0,0]}